{"latent_dim": 4, "input_dim": 32, "ops": [{"op": "dense", "W": [[0.5215863126312305, 0.24304034545190115, 0.2903985498473481, -0.1922221427496131, 0.11535786492116386, -0.5285702393995452, -0.20118809659074977, -0.025518823371297468], [-0.05779173294203168, 0.10178928484099481, -0.25671326311497517, 0.311343092993483, 0.2677091782227078, -0.32788770164618514, -0.264233415619156, -0.33569464516406683], [0.2629794782478263, -0.33238853014377046, 0.3137149260756037, 0.2081445785507642, 0.20226854968248426, 0.4605637431115101, 0.29113569809080275, 0.32202211260354535], [-0.4093163986235124, -0.18524637761730645, 0.0317011746232882, -0.3555637005166999, 0.0980772436337006, 0.2251427179486155, -0.32272458948379446, -0.5072308611250894]], "b": [[0.06689522387310982, 0.0801993920729973, 0.08892497911024785, 0.04890063056490423, 0.10264648175126466, -0.02939480087970106, 0.03183075617155028, -0.054122811549102395]]}, {"op": "relu"}, {"op": "bn", "gamma": [1.1978887894428936, 1.071628571830807, 1.1668809740586812, 1.2208543897946067, 1.2432811647085633, 1.1150097585712115, 0.9494411082080709, 1.0568044970885302], "beta": [0.15915533817320285, 0.1860493703024482, -0.04932056153655244, 0.10190716011750738, 0.04282261433972348, -0.10987987614782586, -0.1836317145324292, 0.04306303672237632], "running_mean": [0.2492542208888775, 0.17305708997622263, 0.17187965265925592, 0.24024128199178119, 0.20509070233776044, 0.1623909137546365, 0.16946624164353163, 0.16986369040566637], "running_var": [0.05917086555241645, 0.032057105870281266, 0.019601619173583967, 0.06844930414991587, 0.03588306225356732, 0.07687043561596789, 0.04143919995190401, 0.0509104232696673], "eps": 0.01}, {"op": "dense", "W": [[0.040315979039655635, -0.4818954944417299, 0.18471225061790156, 0.13877568346790956, -0.0572927441582737, -0.17185553808698423, 0.10380655268866737, -0.09501742508846629, 0.10674940191485033, 0.048120837208043846, 0.17744944535436347, -0.24069606469852153, -0.19817899190548752, -0.23456848460225194, 0.19634691324946074, -0.5473454543939001], [0.25112157982023214, -0.06638344549998174, -0.2773379085817268, -0.1555996905536848, 0.4195517093464276, 0.047676764923315, 0.023584264877358374, -0.0018391842974618603, 0.11818181108593592, -0.061100694146598154, 0.17899403142242964, -0.025314277373014435, 0.07823469364107474, 0.2111301242040631, 0.34559258601628323, -0.4134969934678198], [-0.015392567974444635, -0.057266789596438356, -0.14798596779119397, -0.17267655359795467, -0.08351730956500154, 0.18011581904717902, 0.644491860876871, 0.1800919785641285, 0.18089443606349376, 0.2402257225040979, -0.5598710348570862, -0.05050742362505664, -0.028669895218259026, -0.5074321151189238, 0.05679930843465492, 0.26391475461385916], [-0.42616499663252877, 0.2586979005458409, 0.175420031771175, 0.07591747958030345, -0.24203617493601168, 0.1738795373932647, 0.10919953803965206, 0.23524109185801778, 0.3052934664108025, 0.217051944418327, 0.13030671345139488, 0.112376963046139, -0.48717832358721813, -0.08751961387311946, 0.023026544292407733, 0.24083654872519175], [-0.0303293228549238, 0.12509763091141884, -0.5347227790188142, 0.01298355659088179, -0.027573643721199116, -0.4361652838095016, 0.21474404405755745, -0.14481741566690542, 0.1642214951935871, -0.44499195109638734, 0.2432582315197856, -0.3559465902677838, 0.4372956879316822, 0.03215780259351647, 0.37263188284509896, -0.058926210935765944], [0.1583600372448301, -0.5152392801734567, 0.16903010548323188, 0.47975189441059557, 0.17393030707243612, -0.032602151234199385, -0.08940526549122423, -0.38219636363992243, -0.1747224093264903, -0.18900565694289198, 0.22306935339822595, -0.17454801810473927, -0.20228709414090887, 0.08748973185391921, -0.08548266081511736, -0.18172555508617216], [-0.06287836440387429, 0.28988417660174526, -0.32998190717523673, -0.12129241960773134, 0.3201518171380477, -0.03315199619738565, 0.05191611925133945, -0.3028831691386182, -0.3379939385022647, 0.3214146341195731, -0.06221195210992217, -0.34833785272723794, 0.0915740012887531, -0.25607316399197894, -0.09290557413065617, 0.017307327529865708], [-0.27233522339692656, 0.059154718391229225, 0.04824644447599347, 0.30939904371070354, 0.05628877779759737, 0.4356209659245985, -0.09269619580149298, 0.0984026449193878, -0.03674152190252043, -0.14461314216954266, -0.14495034644763138, -0.27076933589614266, -0.1842906541505193, 0.3473607420880507, 0.3863227589581829, 0.2422185330715728]], "b": [[-0.07426696779377948, 0.04347020445354527, 0.09778239348130123, -0.07730975844037576, 0.023960847442691058, 0.08928816044787606, -0.11755565512008251, 0.06914190831438001, 0.3436126376095002, -0.044064951125894355, -0.00651438313299787, 0.09369399318052313, -0.02842084784666332, -0.07201103925139211, 0.21109752001540918, -0.1020538214081139]]}, {"op": "relu"}, {"op": "bn", "gamma": [1.578082022047165, 1.921817298863431, 1.6687121783006602, 1.6106926450760854, 1.4961086527420815, 1.5328967570048515, 1.6664325105996214, 1.4221736462771186, 1.6361854861260232, 1.7897987131942406, 1.7284385020913442, 1.7212567461972608, 1.7781405812273587, 1.837685935680803, 1.665438085070619, 1.7373748401209368], "beta": [-0.2265888660081588, -0.6653222069131633, -0.6088755576722537, -0.4759012623572739, -0.563147857215027, -0.4187316853830067, -0.5001729559655831, 0.5463319414518958, -0.41477218710258157, 0.5375444369164932, -0.43658139057020745, -0.4738528850520437, -0.5053414958671516, 0.5349014739388774, 0.10493032157755969, 0.6362472989320714], "running_mean": [0.266068418583039, 0.22808563045158547, 0.2560313894192806, 0.22434100297095744, 0.1628334217510667, 0.3381118814934346, 0.20075267868130606, 0.282264438950298, 0.5197883062830275, 0.2055982198802221, 0.35437881399916626, 0.3484584874558466, 0.27651428745762885, 0.22290217005911178, 0.4734639991672659, 0.15153973395333772], "running_var": [0.10010793018097222, 0.10012959056973103, 0.05298268584121333, 0.16325277776453284, 0.0649443053843432, 0.18860253471395128, 0.1031398909533675, 0.04933185315265746, 0.1327171036908757, 0.08532923317669375, 0.1679680001169252, 0.16962361358943756, 0.13740450148191793, 0.07072155412212708, 0.23824054533920222, 0.06438817555660065], "eps": 0.01}, {"op": "dense", "W": [[0.010331826891722549, 0.1259264235174565, -0.07541780129026879, 0.4129320809265165, 0.08171518080572847, 0.4703532419914509, 0.09894773693743196, 0.24750196679691158, 0.05487106534463462, 0.6792706747203487, 0.4983030202599895, -0.017072864469801007, 0.17879923609104903, 0.5187102872558023, -0.3692141340399213, -0.2161886140920374, -0.1565953311525435, 0.13517735506079345, -0.0452496830693241, 0.2776414496242293, 0.07871931043838573, 0.10436060559527442, -0.1103576440670607, 0.023654310189410797, -0.043728176270117394, 0.2341789950520431, 0.29023958400409094, -0.08808213077341479, 0.03350475706947298, 0.12215679052976623, -0.20975335101354806, -0.16147565627807203], [0.8315825820036254, 0.2994692792006497, -0.019833939616517443, 0.2496934241111925, 0.01456131763546948, -0.253642457504708, 0.32362231919609524, 0.7221741445320113, 0.07137514235367522, -0.5116774218866496, -0.052054409678932795, 0.5898117519004641, -0.09415182811289885, -0.12269170235725822, 0.5665021213121684, 0.14084798743500046, 0.5518109000010997, 0.3276037171206821, 0.16714166276744127, 0.3758474820189207, 0.12322846839265063, -0.005373006882646435, 0.20962678046297256, 0.44550321111879276, 0.13545386097168258, -0.21203629592390913, 0.16646931920228775, 0.5449734146740574, -0.007287816325143222, -0.08234733019431204, 0.43972091202455343, 0.32606875252590106], [0.3219641298181831, -0.26867994420177055, -0.029881033563098593, -0.050181419833666155, 0.4336159679520191, 0.20917470061088722, 0.5824441706662054, 1.008325030238305, 0.09431096775465703, 0.6805967766776773, 0.182393339436775, -0.10488143724556405, 0.19213493688063887, 0.11522635175537911, 0.1807454317720122, 0.07091294376779186, 0.3399020210877702, -0.0007462680424147117, 0.11350519486106621, 0.1519151196792014, 0.5391084155326854, 0.10276977044311511, 0.29855460229242703, 0.6879894962899725, 0.22684072020437673, 0.43941281732685994, 0.2994780308410373, 0.05474429698137467, 0.3459758035751728, 0.34743429417694666, 0.28902588368697046, 0.20344767814352088], [0.08595736483623255, 0.8088052128479635, 0.311576103070938, 0.5246546704832398, 0.07267898947371844, 0.22003877202292269, 0.03573600407621264, 0.451843702632246, -0.0031563914481833066, 0.11667137478327858, 0.22420207429596292, 0.3385491495749875, 0.528776194911828, -0.31160007517721133, 0.18288967775442627, 0.17527129523168794, 0.03395818333191023, 0.4581116506628229, 0.13971901540378634, 0.36123958586011645, 0.0260354392699193, 0.12994113224234594, 0.03165908620015717, 0.33925479947788983, -0.08275471094237272, 0.20564342931567064, 0.10408956447773632, 0.23271910187942768, 0.3799552502804759, -0.09453592679317142, 0.12976482589481286, 0.07023562647552647], [0.341414065935019, -0.2748130715145019, -0.16433429721189308, 0.0355464027967779, -0.5998644046074021, 0.198787785161555, 0.13312969775674827, -0.18297888035756804, 0.3324997545830437, 0.11772720392518396, 0.4726728709217573, -0.1778404396354087, -0.46348990268820234, 0.5723392853746658, -0.3578874085663304, 0.4055692492387655, 0.46806823205062803, -0.03111727647305169, 0.07598328148597908, 0.2753000631518382, -0.1642249099000834, 0.25071294950842676, 0.2525854942545172, 0.12928730788023696, 0.2746969659214754, 0.19564261739851185, 0.28858978912416217, 0.027138292104745214, -0.13416128588397086, 0.3226265352524438, -0.05136223068896355, 0.5035609899978992], [0.6174897170999276, -0.01358075490783083, 0.6058086140040378, 0.10160415233775925, -0.3084417548206273, -0.3149750302547306, 0.4654981422657702, 0.07980490398746456, 0.1266041019562448, -0.12831328142909554, 0.07875167469161201, 0.15641409725917838, 0.12997995562262027, -0.24775863543266025, -0.32969940918231155, -0.12647896187382077, 0.3793644757637322, 0.24285931419899245, 0.30228773367370704, 0.19396449988208564, -0.057679033284228215, 0.09499197570440732, 0.5632492579856947, 0.13875293525476878, 0.37379255359184627, 0.06432986567437486, 0.36765940451417745, 0.03214803379073601, 0.1426463357825878, 0.28108828628130017, -0.14713664255828596, 0.014609906185925925], [0.4159454094559419, 0.12464606508381895, 0.18750420105728371, 0.021256438852831697, 0.4618338481932765, -0.06387281727892098, -0.44833191016772944, -0.5609969189952763, -0.39193245501748475, 0.5133683314455005, 0.7143262945422449, -0.17127076597463886, 0.18154546394385274, 0.23546693958577436, 0.45847310827872206, 0.2983188333488222, 0.4353301482656308, 0.26854994413980643, 0.22614693467039146, 0.16241264004974135, 0.359538748911307, 0.011529307357934913, -0.20933801449866574, -0.23381969277634854, -0.1221154831920052, 0.30500351643417734, 0.5836314445559286, 0.030194372938008626, 0.1864737399900571, 0.27777613134918244, 0.34537821390467666, 0.45002123732236965], [0.08421663765452064, -0.059765982954615667, 0.010193382692116771, -0.2985882055648424, 0.06900010728746812, -0.42361950812004207, -0.0042962468075779464, 0.024599424916031922, 0.3451108636166819, -0.5978301136764094, 0.1813173111573522, 0.4803061601942472, 0.6517754981202017, -0.2897900672357215, -0.026873588400729502, -0.12402467030727703, -0.012469492578516608, -0.07276778421340115, -0.19920984447573792, -0.34136048912160083, -0.1561314910973472, -0.37585234220675495, -0.2047769801639439, -0.07865512329467218, -0.028373803764767523, -0.3576428749241068, -0.09735393321997096, 0.20456907014781425, 0.24063876448920796, -0.2881124432762788, -0.1429064891319785, -0.1652379035893858], [0.1560804711529594, 0.00809321298704755, 0.32636708012852944, -0.14749380296359738, 0.5696410295676477, 0.602531736058988, -0.3064529127631893, 0.11705736660206605, 0.6698509729503788, -0.33795109627447817, 0.1787394072509369, 0.1925368423875129, 0.39679429745772227, 0.08648495251403687, 0.12023862169968112, 0.2392821206445372, 0.02950600985995087, 0.04557584310213097, 0.2123789995808363, 0.033207285270969035, 0.3865214703448404, 0.2642358987126164, -0.009416899399120498, 0.16005348941700717, 0.49077290809965146, -0.08197120159800497, 0.15705876190780005, -0.0031456926584212926, 0.30837544930733285, 0.1957934841689938, 0.008816645745890665, 0.13608528988831659], [0.2235708901533493, 0.0664897291106013, 0.4486620861511478, 0.01878840891824387, -0.584498834559072, -0.09744153949469031, 0.32025467578096634, -0.12914018481662595, -0.6951277549356442, -0.1501833545122168, -0.1869112347393076, -0.09148064470808423, -0.1688730874846651, 0.2937431535465381, 0.298894691469065, -0.7113570227158303, -0.15328572275965222, -0.15938129351159994, 0.20832548845342125, -0.10520189233561689, -0.5320722392052646, -0.1522343834387387, 0.015070410223328768, -0.3170810724356161, -0.6753853375991314, -0.12714912526561248, -0.375660573263534, -0.08063212589930144, -0.07919494359149203, -0.13596425213533783, 0.056639911162031716, -0.7132636021599048], [0.25187544201477463, 0.1766451766726348, 0.31180897400170365, -0.05501975488101782, 0.4366871820778194, 0.6242041324786902, 0.05142746097208655, -0.4235550953419182, -0.2511470709850216, -0.43400655416768036, -0.36405781540274906, -0.8005241252808456, 0.24955644103025568, -0.10177443987592862, -0.07281885391564558, -0.0800968625458048, 0.18211865479370445, 0.22422476391229515, 0.21227503892782945, -0.050638742651228044, 0.3309151473043996, 0.45620185127826535, 0.2753097437355892, -0.17724091532960864, -0.11948213921779875, -0.11247449907903567, -0.08034672228068113, -0.3548884409000049, 0.25277183465794717, -0.018898931921785295, 0.03417944390744424, 0.040496091006948245], [-0.21412761881386688, -0.07248228516713683, 0.132397119667814, -0.1137481211502379, 0.6567553480686038, -0.18178397158276885, 0.5362710989359556, 0.08716457674197914, -0.11367605357171677, -0.13684893712618657, 0.7968425304570304, 0.2001669896967562, 0.1618055444944701, 0.4180241538787484, -0.2944224607694491, 0.15469888248057898, 0.03636644057116698, 0.006903857647157635, 0.25726593798637887, -0.08726316926759008, 0.4346622525583879, 0.1004990640394653, 0.3759919940251685, 0.2657091156141117, 0.16833626641447977, 0.10983172515819893, 0.5086082100920616, 0.2833483630037933, 0.28147949480635687, 0.33523026269755424, -0.030118444962184878, 0.158796126146115], [-0.1636303804495727, 0.4899335967093124, 0.29052030622982805, 0.47571737001479686, 0.21814105256870198, -0.5915195164591615, 0.3030483991882963, -0.3644162025031951, 0.503322352760308, 0.3965222129933159, 0.09818444351010455, -0.0729351554183513, 0.1530450099095273, 0.14978495805770795, 0.666713260014896, -0.8405909355659691, 0.1013334762481134, 0.29425381186218896, 0.18136141106928785, 0.3446999168166831, 0.2555502854988304, -0.266566022726825, 0.30001574189980995, -0.08806163597355515, 0.3303073054944823, 0.2970153157438801, 0.13840821267645514, 0.08850400905393425, 0.2656281096613362, 0.33632322578100077, 0.3101958581078307, -0.5081161814196152], [0.5396230333536342, 0.1109953395839484, -0.45863660525958616, 0.26426995837596073, 0.1107009293048564, 0.2765940502957065, 0.9431024479620417, -0.6060862946977247, 0.07082183068976065, -0.19539893315425585, 0.06131290629931864, -0.18376545641612074, -0.1183111303231406, -0.08284752553608, -0.21806965233034853, -0.03054079337865898, 0.033457344714340614, -0.1701712361328813, -0.49711241019791735, 0.0322937120900454, -0.18999803996805092, -0.179666176378555, 0.06845253662032215, -0.6405215667500883, -0.20990692526593693, -0.24408468801155028, -0.12313154117258114, -0.36030144480285464, -0.2646457103951597, -0.1482930038682355, -0.31965650280916436, -0.24676059934412137], [0.7835009788729965, 0.050196170868627044, 0.07890002684502267, 0.2619035973142595, -0.029829755360121966, 0.3581162284616373, -0.5878929454700657, 0.10399936531304385, 0.23664605862019736, 0.1634067289768671, 0.06316556884405487, -0.05585066807943583, 0.26038885643771653, 0.31210914128489536, -0.5435754352305217, -0.21732350338291062, 0.35969635282152496, -0.1759394322974633, -0.0028919550463537475, -0.09080736261812074, -0.1590921760827689, -0.06909020585001983, -0.43391994195775196, -0.03150878755727038, 0.09268489475758014, 0.016495833634506844, 0.019045363279734485, 0.07756959308290738, 0.09218255219649012, 0.02431740337241027, -0.2784543753925772, -0.2656066965667322], [-0.16401833731994708, -0.15401497315578674, 0.30474730277164025, 0.025470852518996702, 0.17259351799138234, -0.4735516212755019, -0.2329555768293406, -0.1132709646046238, 0.46363038103748744, -0.03917196673970514, 0.6070711479170252, -1.169361537800237, -0.39850337529483654, -0.6507098616539143, 0.06828278686730369, 0.04507502004135383, -0.21148728706297332, -0.2774020874794495, -0.019693268626558513, -0.22596797749585362, -0.025842309424178707, -0.49185063666873685, -0.3971141428032483, -0.13649990515261698, 0.1547431398866349, -0.24177043135378928, 0.17571063597478476, -0.8719669200835524, -0.3828625851631588, -0.8578747178573947, -0.09837901515130303, -0.14423502981680447]], "b": [[-0.1553622805478537, -0.27340877693850013, -0.09921797950820076, -0.028794633140395747, -0.13997005151814762, -0.08736371953067949, -0.4050275639738344, -0.1671845095537724, -0.1460347754543729, -0.12148272835369928, -0.041806734306029436, -0.053328754160758725, -0.035710656701635646, -0.21536305722281074, -0.0942784535586849, -0.19465781141667576, -0.42439320600274505, -0.4498742978180173, -0.4668400190912587, -0.3517642503144686, -0.34100876224597054, -0.4186380027791036, -0.43535387028723155, -0.3662744197146734, -0.36838385884763775, -0.48582237718899185, -0.29698893459910725, -0.4933110358846495, -0.33901083728107173, -0.4291422190206768, -0.4874478651815863, -0.42340975615351095]]}, {"op": "sigmoid"}]}